 -0.5687757534870813 -0.502346933189391 1.4536560178050952 0.941624629737932 -0.35095552422226295 -0.7354463148255037 -0.3454747814656169 1.2671719660821745 -0.5733880713888305 -0.5972169088261013 -1.0344887704139956 1.0732206745054196 -1.2007456021057574 1.619373619868037 0.169669871840837 -1.598270861558862 0.4854823767565882 -1.5123430889783311 0.7677936805928862 0.5535921238741423 2.2049722646716248 0.9499439711904726 0.6781903768338554 -1.0862011618344445  -0.5540923157416591 -0.5961820717945586 0.8042534062047365 0.5952123116970723 -0.165055814943123 -0.15423624772917108 1.083268265363072 -0.2804827821995241 2.445433949195479 0.6761422809025218 0.14126504021125896 -0.722288219046311 -0.060865077532836806 -1.1203077214448418 0.08430021388485785 -1.6222122856211547 -0.003869813994596121 -0.14260762444595954 0.5474807913767752 -2.5508015283476806 0.1648624485734959 -0.5041632664365205 1.3761356920714671 -0.9090781340754509  0.8782714561934811 2.3112271227316423 -1.3305724934873446 0.5674604162774974 0.1898468584580733 2.3514284024751766 -1.4283917769874215 2.0710219788368245 -1.96296139427066 0.41240620353827573 -0.8749939033625207 0.3124078737889652 0.2741054600533106 -0.1748703546158539 -0.459557236135733 1.574399057262563 -0.4105381844914795 0.883867999287672 0.10427822176700219 0.3934419197193937 -0.9363705465812844 0.17294710105582073 -1.4898327326004461 -0.08697163502006876  -1.1004010540624731 0.24103066710420387 -0.28570048463071035 0.4724848894109338 -0.49247071624910055 -0.4327948191203378 0.4487211100021149 -0.41676338451546924 -1.5581770181661971 -0.8982768297993495 1.5618867728459003 0.3495011168353327 1.2817557267401756 0.9640791332035616 -0.49263019695826643 0.2376255299929624 0.08458060643005913 -0.635491628333228 -0.3446655841086904 2.04947215622243 1.2713532551539561 -0.9293491445598767 -0.5614098979634109 0.08764120795131357  -1.3493011766323093 -0.4614800438308544 -0.8598888294253645 -0.0008753855910639401 0.012469174715363116 -1.2649616993062334 0.40583463899602196 -0.3227893883802944 1.5462600575444736 -0.6778240667372534 1.4076027527288648 0.6801827099995732 3.070858975280168 0.9657103589041655 -0.4137345034621776 -0.8824962925641249 -0.42878330016461735 1.3742686955388235 0.2478127559600026 0.09441432062958219 -0.5024937911779118 0.09908496740801788 0.4423784956430729 0.7995892294300804  -0.41334235261505875 1.0254112482862812 0.364341683589522 -0.8208936705416172 1.1545782401467428 -0.27676165493109856 0.17472680029031448 -0.5055716531860198 1.732987720462764 0.7724682281658475 -1.3009923862452604 0.2709214004141002 -1.5419293151537 0.4180312010620835 -1.360381161858859 0.942311707244009 -0.014276615007634835 -0.16271821319928503 0.37123851837175703 -0.025967489028727427 0.5211846651431077 0.02873822465095306 -0.38786019479258443 0.11185770923545164  -0.9415022149729013 0.5525101522571569 1.3213784031286362 0.3569862886886612 0.3512333670270031 0.48199843578531043 0.09487577679950644 -0.7886772224491853 -0.49022467167228606 0.7798325290851608 -0.29037085246767447 -1.1979511607125382 -1.5998516130926634 0.7266964217813702 -0.4254676347210909 -1.4668397534059197 0.7779920518498312 0.5815221424570435 0.07535142724173502 0.3280781787753204 1.2547227040812607 -0.01093275350722936 -0.8322260991967236 0.8814636192258797  1.873840008072036 -0.09653545258510352 0.6542637188743428 0.6729287808789999 0.17814861058875592 1.2504262000717508 -1.0126384713780363 0.10745109852493999 0.3789944742759554 0.12963177091700323 0.4588059507606747 -1.437379016867189 -0.2899423480702998 -0.47635909997586945 -0.041633094216798214 -0.017967954971539326 0.5279339816396982 -0.7633961290218254 -1.1183933263495704 0.9015395887174923 0.7528635033926298 0.8437972314764957 0.9627852254344519 -0.4662413539660549  1.078679085773349 -0.11478840672637931 1.105542447201057 1.5315926996498794 -0.7123217702078467 -1.7612295897105323 -0.6086688371788358 0.5102244239203811 0.2903991823971121 0.5396548175945962 -0.8693292081700037 -0.3074754446005495 -0.03708730632132409 -1.7023498569870932 0.5443108270652984 0.3046352736391383 1.5276438552435825 -0.0610591208676605 -1.137369238431941 0.4033496962153892 -0.02347150644640941 -0.3598186303013189 1.4188217859627565 -0.4560241743059603  -1.2804370392828317 -0.3401660199619393 0.005642772761326599 -0.572285339229038 -0.5167120061628852 -0.6965730120548176 -1.0223142221258548 0.6990684265853395 -1.0669400210694693 -0.9692792891107448 0.26840964934467765 -2.9798975624698882 -1.3964550088693326 -0.7848887821671549 0.837963406354968 -1.8164569710054703 1.3845774007202385 1.0496714119400417 -1.1649895408410744 0.0011837787100016713 -0.7941954120433126 0.05080187718350716 -1.5750139593726948 0.8760925834336127  -0.8629793197186849 -0.19084358471108137 2.368465089305747 1.1588992999673136 -0.963765874386104 0.8112233701935766 -0.7596798202664178 0.2731456151455881 0.46669769588387017 0.8788346716714462 -1.629976395279029 0.6239450342915576 -0.14100124794226318 0.006772219576354735 -0.7103482053408062 0.8599617537977331 1.8810024578031512 -0.48590539271433725 -0.5942892758535742 1.5034837069445919 1.5600331070078077 1.2656987392944614 -0.02387194338479153 1.9936372439414447  0.7591109847246642 -0.3544330581828759 -1.0916962935863348 0.06530924090368978 0.5088361685035785 -1.441651370493227 0.32772221885127534 0.32714501972185034 -0.950761972231121 0.06971795485782194 0.8537513693521508 0.14679504722091266 -0.11256153988304707 1.3187359412060233 2.808944337310316 0.05454216590854153 -0.5216161145708291 -1.318210510529833 0.8289214956682192 0.6137224066588438 -0.15922106906846425 0.305734146750495 0.6879859479746949 -0.8534467021310252  -0.6073165829687014 -1.1569198918857964 -0.6360819290520535 -0.4123019105015459 1.8597433707832782 0.4147302303934128 -1.7283079110847916 -0.028896817023760627 -0.2018828150192796 3.1072353751090662 -0.8030668093634894 -0.5760736605561417 -0.6511879913013232 -1.362882103090905 2.058438547512908 -1.379135380157401 1.5337422429609184 0.9609788450854595 -0.6215480999304578 -0.2888014347779146 -0.7456503014658892 0.03862609172073905 0.08335783861099547 -0.021819247796711124  0.8840990794088732 0.7441018386785422 -0.24014552461040609 1.1512248368274276 -0.7456275083775751 -0.14559288628661915 0.39515988311221695 0.19801196361185353 0.09024356939561219 -0.7992048142963633 -0.026778499504731646 0.10552073700113061 -0.6784634971252382 1.0772800050806504 -1.347732511943458 0.8670540987474871 1.1663310769249398 0.36404210585399055 -0.44986091224030633 0.3832790922214777 -0.7546902649333433 0.11763308304512368 -0.48035753899039285 -1.7005618841513326  -0.26364334040415177 0.0703096037245623 1.0931440133606265 -0.04020526907840929 0.04725540853053251 -1.1722858874099213 0.4635885584946717 -0.08193951729516889 -0.15204408329695268 -0.17591553398866785 0.08518356639128788 0.12758436666695114 0.2976730356180159 -0.12481556098996041 0.01966224390752294 0.3548407868600004 1.712452160227309 -1.6560510602016876 0.024196716568329387 -1.2042777590596332 -0.028413791726570086 1.0240725332323075 0.36429644696466407 -0.3368680219704078  -1.0475665726841215 -2.03941365278516 0.19531146430568988 -1.3114688760353153 0.5611805670831825 -1.4277077945209007 2.2926890333912304 0.983393311610546 0.2965897810775798 1.1603583433405662 0.019472316907453383 0.7997139597783848 0.7094613019064749 0.8676512247358696 -0.9418514614788838 -0.5204632515553727 -1.195841121644994 1.4590477582302543 -0.027415819154461438 1.2922395700808584 -0.4409358652463764 0.5994809748101368 -1.5024279414375916 -1.9313055122601883 
 -0.8867870429223154 0.48343496234373 -2.1955863860533418 -0.1984922684878913 1.7155530874099807 1.2151977748128933 0.747011137862593 -0.4523059992697498 0.49961467970427853 -1.684272234837684 -0.3510260071261428 -0.22188930359261905 -2.1081652524831296 1.0651952835793435 -1.1086377402721126 1.2146782731144143  -0.7317717671429785 -1.3173342982900786 -1.0670567188049827 -0.2940493514061926 -1.1647697821464906 -1.114040359818842 -0.5320664773079005 -0.25590766185715463 0.857819999839451 -2.103333357226677 -0.34978292239989095 -0.5976851185441115 0.06799378920186845 0.22687321984902656 1.3409974261656754 0.7823941047092681  -0.9025849833548784 -1.1511957187278836 2.417456534086967 0.3993972621048646 0.0653443622231026 -1.2038903023713903 0.5523335697318066 -0.6159716346347535 -2.1633922655713205 1.5404120228278353 1.6809446824446213 1.9251409258085994 0.8358883429269184 0.36175340940833733 -2.9290541109473676 1.0029735927252497  -0.3377241938314878 -1.0654374332425047 0.9587680832383872 -1.3123393843506275 1.5408214602922476 -0.019647897964293136 0.8126530543776953 0.629702360903564 0.8298176070207478 -0.9961099351820841 0.27553796525643187 0.2286919161619798 1.2448828429517866 -0.9832068349917684 1.72268000064552 -1.0443331874908024  0.46048124874724683 -0.9571295188225122 0.44696146539077947 0.11299991713704324 1.567709795457059 -0.620178273203633 0.1921057990518772 -0.11229568041693218 -0.1156560752549398 0.19747220880960215 1.409984866805702 0.09692373677183151 -0.1082437423963156 0.23251920386206718 0.5305993015966297 -0.0038813795430498394  0.2266339054689578 -1.6581834411625391 -1.6117932542803584 0.285442084228236 -0.8660566504178796 -0.4193248408802248 -0.43807044551518026 0.5562432187020386 -0.8388910688191185 -1.1346454944613287 0.9834305043211361 1.0487597568547766 -0.35783915157293256 0.16490857698257175 -0.7798265180706498 -1.4775341020402801  0.7148983884717058 -2.158476526776495 0.7212876041397107 0.8171399999970421 1.5422533108333802 0.4997937389740254 0.06112117108131395 1.1896196129913708 1.334064461597898 -0.2544359004909468 -0.8381053139115794 0.012992113270336609 0.259183151087733 0.929260094594086 0.26588966133928693 -1.697070127789262  -1.8191787023283035 -0.40492819523520235 -0.4202185048395442 -1.9449235931503615 -0.05077718480215647 -0.3441488932469535 0.8656025888921044 -0.6313438596175924 1.5039889802044042 0.33278502016920425 -0.4392562471841234 0.1940380869194689 1.5077925657840738 -0.9053651395962893 0.6590238719507318 -0.8075398400755173  1.1068138810876662 -1.499302774076918 -1.5440294001306314 -0.21372477723237845 -1.6998085586323133 0.4726805941013981 -0.01706371628807352 -0.5793944083108332 -1.4054646007749867 -1.5807053473629695 -1.2488405520531372 -1.3903075911515128 -0.21920793497676802 1.4560385185101241 -0.5187279978256998 -0.6778547713148224  0.5395398251968482 1.076984766717396 -1.558928628747187 0.6178560289691821 0.7801350402904658 0.34360874633918237 0.354592549662775 1.3080454279376021 -1.3917482625361643 -0.07944376850271948 -0.5952918473147149 0.14668414868663082 1.4897291212933426 0.7697724652566915 0.5358087005116567 -0.1620113597996977  -0.02080775787891412 -0.7387147693725066 1.5001501978545075 -1.239576355392997 -1.1765270027482138 0.2604534357398093 0.019000623732654733 -1.6910700899106683 0.5173097589629475 -0.2204740002798586 1.6364923094290027 -1.299155341860331 0.8982264320539998 0.7195267030511598 0.3903685704420303 0.7636598345608518  -0.31190754081389405 -2.509656875738217 0.505368024238949 -0.2587912955208656 -0.723739680578894 -0.20676319591474498 -0.49103003337245477 0.9005504101150845 -0.58051039901269 0.17945281684659223 -1.8910956298684831 0.7273457920924115 -3.267989160559645 1.0945597016781856 1.277413812171838 0.7433666004750319  -1.0604368833472533 -2.2444538135454333 0.7100598883064307 0.926944783349301 -0.8324485931772729 -0.7273680090958112 0.4587853086621465 -0.31508117796196045 0.752944438955534 -0.4617939477135626 -3.804703045595313 -1.5795230859415292 -0.8910605225600551 0.9473775681095924 -0.6839878411372468 -0.6464224945020327 

 0.13992858343584422  0.14875121889039125  0.7075911510858087  2.0212629018348283  -0.3808927378600677  0.4347667512950808  -1.2986779485908657  0.06042839947830387  -0.2990011649872434  -1.3503480139779585  0.48672015867911167  0.6897896261152969  0.6786174715810662  -1.012787159488186  -0.6714094498853214  -0.6406824221831562 
 -0.5149781025690606  -0.261425608784556  -0.059573247151513097  0.2871293625414478  0.5431071662497268  0.9650149990727098  -0.022011593706437377  0.0531682737326603  -1.22567202672507  0.9991514234032985  -0.6205685999857399  -0.48722778123892463  -4.037144314046644 
